{"input_layer.weight": [[0.8227913975715637], [-0.30207595229148865], [-0.9498974084854126], [-0.2311372011899948], [0.2846492826938629], [-0.4157525300979614], [0.39029136300086975], [-0.46055054664611816], [0.5092291831970215], [0.22684833407402039], [-0.12568077445030212], [0.4197655916213989], [0.30662211775779724], [-0.49904438853263855], [0.1335456222295761], [-0.6574668884277344], [0.7847817540168762], [-0.5161617398262024], [0.5458253622055054], [0.5155684351921082], [-0.44729578495025635], [0.7144827842712402], [-0.20710599422454834], [-0.02632872201502323], [0.1181599572300911], [-0.0015970333479344845], [0.7780292630195618], [0.15114204585552216], [0.6122704744338989], [0.41035136580467224], [0.13747520744800568], [-0.7482273578643799], [0.2968365252017975], [0.019762488082051277], [-0.929287314414978], [-0.22521157562732697], [0.10541673749685287], [-0.5330367088317871], [-0.13903577625751495], [-0.12289514392614365], [0.4083460569381714], [-0.6995691657066345], [-0.8822289705276489], [-0.941275954246521], [0.4956055283546448], [-0.29884326457977295], [0.741896390914917], [-0.2304580956697464], [0.9869033694267273], [-0.7093439102172852], [0.8704379796981812], [0.3851175606250763], [-0.43145743012428284], [-0.2943614721298218], [0.13081704080104828], [0.5029819011688232], [0.9251872897148132], [0.021469593048095703], [-0.13959336280822754], [0.8216557502746582], [-0.3360081911087036], [-0.7315182685852051], [0.5084066987037659], [-0.5834378600120544], [0.4141964316368103], [-0.6988779902458191], [0.18185953795909882], [-0.25135475397109985], [-0.6547471284866333], [0.3388144373893738], [-0.9685307741165161], [-0.27282512187957764], [0.5281054973602295], [-0.5371778011322021], [0.49572211503982544], [-0.4388333559036255], [0.9792532920837402], [0.33396849036216736], [0.13606709241867065], [0.4476058781147003], [0.16814517974853516], [-0.6209858655929565], [-0.6432658433914185], [-0.5590345859527588], [-0.6341996192932129], [0.04239177703857422], [0.7199748754501343], [0.8094309568405151], [-0.7642019391059875], [-0.7352986335754395], [-0.8218839168548584], [-0.539803147315979], [-0.9432066082954407], [-0.9667997360229492], [0.17034651339054108], [0.7560241222381592], [0.721561849117279], [0.7118566632270813], [-0.3977102041244507], [-0.5946231484413147], [0.04371821507811546], [-0.42993324995040894], [0.9120762348175049], [-0.6434729099273682], [0.39640265703201294], [0.031163260340690613], [-0.9222372174263], [-0.6841031312942505], [0.5709518194198608], [-0.7857401967048645], [0.34600210189819336], [-0.29683464765548706], [-0.8029683828353882], [-0.8992739915847778], [-0.8032985925674438], [-0.6469011306762695], [-0.2787461280822754], [-0.18138732016086578], [0.6648520231246948], [-0.21392083168029785], [-0.7772005200386047], [-0.6236807107925415], [-0.5608024001121521], [-0.8845900297164917], [-0.2732844352722168], [-0.3893313407897949], [-0.5210912227630615], [-0.23678743839263916], [-0.8249431848526001], [-0.8085739612579346], [-0.09254777431488037], [0.43783122301101685], [-0.13827502727508545], [-0.03900408744812012], [-0.015523195266723633], [0.3124801814556122], [0.7806439995765686], [-0.7236990332603455], [-0.31855714321136475], [0.3101336359977722], [0.1569586545228958], [0.04761552810668945], [-0.7310452461242676], [-0.5699036121368408], [0.8273240327835083], [0.38413509726524353], [0.49311792850494385], [0.6562338471412659], [0.9111838340759277], [0.946915328502655], [-0.8318830728530884], [0.6807759404182434], [-0.905387282371521], [-0.64715975522995], [-0.5112446546554565], [0.43546825647354126], [-0.17455822229385376], [0.5410268902778625], [-0.8331774473190308], [0.6391742825508118], [-0.963198184967041], [0.2450563907623291], [0.5201160907745361], [0.19378510117530823], [-0.9211137294769287], [0.8867058157920837], [0.8234148025512695], [0.6798790097236633], [-0.7178100347518921], [-0.5368697643280029], [-0.8762626647949219], [0.6475439667701721], [0.047816336154937744], [-0.7885175347328186], [-0.667609453201294], [-0.10946455597877502], [0.9783040285110474], [0.7195913195610046], [0.9473614692687988], [0.2236240655183792], [0.9468324780464172], [-0.21672947704792023], [0.3191121816635132], [0.5893860459327698], [0.3895591199398041], [0.037378668785095215], [-0.7628483176231384], [-0.8003562688827515], [-0.4149019718170166], [-0.6607202291488647], [0.922512412071228], [-0.9718389511108398], [0.38438746333122253], [0.9831455945968628], [-0.10232100635766983], [0.24819809198379517], [0.7336186170578003], [-0.3720237612724304], [-0.653770923614502], [0.8602678775787354], [0.09879396855831146], [0.35424989461898804], [-0.829657793045044], [-0.5862953662872314], [0.2731727957725525], [-0.14559054374694824], [-0.11303591728210449], [-0.1535131335258484], [-0.44348710775375366], [0.5190212726593018], [0.31372666358947754], [0.8088277578353882], [0.9588684439659119], [0.913781464099884], [-0.0815732479095459], [0.1967630237340927], [-0.37172502279281616], [-0.1498798131942749], [0.08196321129798889], [0.04686939716339111], [0.36074477434158325], [-0.5677098035812378], [0.2356180101633072], [0.8680095672607422], [0.28767967224121094], [0.021436691284179688], [0.9675908088684082], [-0.9347414970397949], [0.17646417021751404], [0.14570702612400055], [-0.6772843599319458], [-0.8535489439964294], [0.9639463424682617], [0.7021147608757019], [0.1752374917268753], [-0.5762803554534912], [-0.33231472969055176], [0.22140535712242126], [0.21367612481117249], [-0.6119129657745361], [0.5594441294670105], [0.6659022569656372], [0.6929746866226196], [-0.33564186096191406], [-0.13289964199066162], [-0.42395198345184326], [-0.6526715755462646], [-0.249367356300354], [-0.5431653261184692], [0.7003578543663025], [-0.8489930629730225], [0.09629152715206146], [-0.2639075517654419], [-0.4766806364059448], [-0.6110233068466187], [0.6945630311965942], [-0.11356306076049805], [0.921360969543457], [0.544973611831665], [-0.877853512763977], [-0.36273467540740967], [0.38936132192611694], [-0.7903946042060852], [-0.39093828201293945], [-0.48120570182800293], [-0.48571476340293884], [-0.2302323430776596], [0.2675028443336487], [-0.3704582750797272], [0.3920116126537323], [0.6692690849304199], [-0.19641724228858948], [0.713819146156311], [-0.47723186016082764], [0.8724520802497864], [0.7293335199356079], [0.8443771004676819], [-0.9263435006141663], [0.3903682231903076], [0.038056015968322754], [0.801866352558136], [0.2438320368528366], [0.2601810097694397], [0.8752680420875549], [0.9205202460289001], [0.14814259111881256], [0.00018513202667236328], [0.6536834836006165], [0.7648651599884033], [0.905899703502655], [0.44387903809547424], [-0.859630286693573], [-0.3399010896682739], [-0.4507916569709778], [-0.8772039413452148], [-0.7820030450820923], [-0.7240347862243652], [0.18124809861183167], [0.03563910350203514], [0.6508199572563171], [-0.48597463965415955], [-0.05805563926696777], [0.4385814964771271], [-0.9886537790298462], [-0.5563240051269531], [0.559156596660614], [0.8379296064376831], [-0.10726144164800644], [-0.45214152336120605], [-0.07129943370819092], [-0.8717902898788452], [-0.49156421422958374], [0.01422429084777832], [0.44717130064964294], [-0.0355604887008667], [0.5781750679016113], [0.2763339579105377], [-0.0021999822929501534], [0.9450018405914307], [0.5490705966949463], [-0.4432688355445862], [-0.01736382022500038], [0.006512761116027832], [-0.767498254776001], [0.8500798940658569], [-0.36021849513053894], [-0.1961958110332489], [-0.497048020362854], [0.1920420229434967], [0.30041345953941345], [-0.19282639026641846], [-0.33544862270355225], [0.41177797317504883], [0.9210768938064575], [0.5949559807777405], [-0.021199703216552734], [0.7892754673957825], [0.1233818307518959], [0.8795980215072632], [-0.5737621784210205], [0.6118712425231934], [0.7218831181526184], [-0.49008405208587646], [0.7577049136161804], [-0.12260287255048752], [0.5886216759681702], [-0.7936304807662964], [-0.6595935821533203], [-0.9036388397216797], [-0.2652980387210846], [-0.34780383110046387], [-0.2289637178182602], [-0.9403669834136963], [-0.7559671998023987], [-0.17841176688671112], [-0.30103540420532227], [0.9286230802536011], [0.495187908411026], [0.643256664276123], [-0.4987963140010834], [0.49914416670799255], [0.8852409720420837], [-0.3277992904186249], [0.23911632597446442], [0.022449567914009094], [0.9552003741264343], [0.9883764982223511], [-0.843041181564331], [0.8350973129272461], [0.5995333790779114], [-0.21476757526397705], [-0.7539239525794983], [0.294891357421875], [0.5051674246788025], [-0.7976582050323486], [0.74571692943573], [0.972853422164917], [0.879050076007843], [-0.3927288055419922], [0.41538533568382263], [0.3953511416912079], [0.926393449306488], [0.9190311431884766], [-0.6556312441825867], [0.11820038408041], [0.7233890295028687], [-0.8107540607452393], [-0.9434090256690979], [-0.04644923657178879], [0.47953328490257263], [0.8389573097229004], [0.45355159044265747], [-0.0868738517165184], [0.7053741216659546], [-0.46143943071365356], [-0.5948863625526428], [-0.34637558460235596], [-0.5470008850097656], [-0.09337714314460754], [-0.3400546610355377], [0.323321670293808], [0.8202952742576599], [0.2710043787956238], [-0.317585825920105], [0.3673144280910492], [-0.30265912413597107], [-0.11028969287872314], [-0.6920638680458069], [-0.4890182912349701], [-0.39639246463775635], [-0.11069798469543457], [-0.3766254782676697], [0.6713263392448425], [-0.7054112553596497], [-0.912583589553833], [-0.17888379096984863], [-0.8945528864860535], [0.45066529512405396], [-0.5640885829925537], [0.4772748649120331], [-0.35155189037323], [-0.8824939727783203], [-0.6403211355209351], [-0.6931872367858887], [-0.19370204210281372], [-0.6476215124130249], [-0.6046702861785889], [0.4149843752384186], [-0.2280282974243164], [0.5504035949707031], [-0.9475109577178955], [-0.03588516637682915], [0.1327274590730667], [-0.36221110820770264], [-0.25080931186676025], [0.5281062126159668], [0.4452250003814697], [-0.7349403500556946], [-0.23427307605743408], [0.22650086879730225], [-0.197944775223732], [-0.4390755891799927], [0.5051625967025757], [-0.3158116042613983], [-0.5883649587631226], [0.5573258996009827], [0.23880569636821747], [-0.746601939201355], [0.8401585817337036], [0.8814964294433594], [0.926230251789093], [-0.3992425799369812], [-0.7258489727973938], [-0.9726107120513916], [0.7455717921257019], [0.054242491722106934], [0.7952415943145752], [0.2291627824306488], [-0.6359672546386719], [0.9106931686401367], [-0.6529165506362915], [-0.4358676075935364], [0.21095335483551025], [-0.756760835647583], [0.13333651423454285], [0.022204482927918434], [0.5630096197128296], [-0.338228702545166], [0.7098308801651001], [-0.19682347774505615], [-0.5141676068305969], [0.6570063829421997], [-0.09269151091575623], [-0.9151462316513062], [-0.05615966022014618], [-0.256134033203125], [-0.7349376082420349], [0.2218136191368103], [0.8061555624008179], [-0.2754199504852295], [0.9108938574790955], [0.5524773597717285], [0.7658858299255371], [-0.09619343280792236], [-0.40577471256256104], [0.3909436762332916], [0.14864854514598846], [-0.6284207105636597], [0.03686344251036644], [-0.24983495473861694], [-0.5907637476921082], [-0.7859436869621277], [0.29294896125793457], [-0.7441726326942444], [-0.3602052927017212], [-0.281607985496521], [0.9788379669189453], [-0.14390933513641357], [-0.7295671701431274], [0.7420357465744019], [0.4031533896923065], [-0.39930999279022217], [0.8586470484733582], [-0.8313616514205933], [-0.07003607600927353], [0.33773455023765564], [-0.20869183540344238], [0.4883754849433899], [-0.14129622280597687], [-0.22539031505584717], [-0.45239460468292236], [-0.31210771203041077]], "input_layer.bias": [0.4868171215057373, 1.1590354442596436, -0.30432581901550293, 0.6155640482902527, -1.3905863761901855, -0.22869575023651123, -0.7801529169082642, -0.20925235748291016, -0.18584775924682617, -1.2177619934082031, 0.6849327087402344, -0.05752475559711456, -0.28804126381874084, 0.8954591751098633, -0.758409857749939, 0.9578975439071655, -0.267408162355423, 0.8964064121246338, 1.0048010349273682, -0.08256355673074722, -0.08066177368164062, -0.15909038484096527, -0.36509835720062256, 0.19015349447727203, 0.41192692518234253, 0.21261830627918243, -0.9490103125572205, 0.3942573666572571, -0.6056554913520813, -0.5358363389968872, -0.20520752668380737, -0.4559429883956909, 0.47826817631721497, 0.9707032442092896, -0.719896674156189, 0.7882099747657776, 0.35692059993743896, -0.0641554594039917, 0.3837885558605194, 0.8074789047241211, 0.8856413960456848, 0.24670933187007904, -0.8971172571182251, -0.08102619647979736, 0.12052863836288452, 1.2145495414733887, 0.31633687019348145, 1.0059400796890259, 0.47355565428733826, 0.8209682106971741, 0.8778752088546753, 0.8915144801139832, 0.1623634546995163, -0.6513746976852417, 0.13100866973400116, 0.07802289724349976, 0.15153993666172028, -0.8867089748382568, -0.5868113040924072, 0.5475122332572937, 0.7309057116508484, -0.2882901430130005, 0.563882052898407, 0.6266992688179016, 0.2212095856666565, 0.2671685218811035, 0.44325849413871765, 0.6481001377105713, 0.0909985825419426, 0.3371928632259369, -0.8697782754898071, -0.1392374038696289, -0.12593036890029907, -0.5882717370986938, 0.842785120010376, -0.24052119255065918, -0.5604670643806458, 0.7077321410179138, 0.8628941178321838, 0.7146559357643127, 0.512667179107666, -0.7608798742294312, -0.22432494163513184, -0.20740783214569092, 0.2682393789291382, -0.6360541582107544, -0.32865384221076965, -0.1935030221939087, 0.8809272646903992, -0.33672618865966797, -0.40118861198425293, 0.5328570008277893, 0.07071282714605331, -0.03774130344390869, 0.4754711389541626, 0.6599134206771851, 0.3142220973968506, 0.04264983907341957, -0.608067512512207, 0.1992810070514679, 0.6096577048301697, 0.18821997940540314, -0.7326990962028503, 0.4638625979423523, 0.45794427394866943, -0.01895125024020672, 0.7347251772880554, 0.8901412487030029, -0.6561269760131836, 0.9638361930847168, -0.490573912858963, 1.0934054851531982, -0.7431913614273071, -0.6264431476593018, -0.49729394912719727, -0.22009670734405518, -0.41101646423339844, 0.3566100299358368, -0.17117205262184143, -0.9990730285644531, 0.33043143153190613, -0.6566404104232788, 0.01710095815360546, -0.31363070011138916, -0.5244096517562866, -0.7606844902038574, -0.4165332317352295, -0.04052698612213135, -0.819297194480896, -0.662828803062439, -0.3014873266220093, -0.4304947257041931, -0.8990910053253174, -0.940670371055603, -0.7305761575698853, 0.6988916993141174, 0.4302214980125427, 0.44334879517555237, -0.3361349105834961, -0.5613564848899841, -0.88763028383255, -0.9941940307617188, -0.2440866231918335, -0.6526024341583252, 0.9547984004020691, 0.8833652138710022, -0.2678487002849579, 0.7457813620567322, 0.4721396863460541, 0.481831431388855, -0.3038158416748047, -0.9935038089752197, -0.027584075927734375, 0.9612100720405579, -0.9550266265869141, -0.8718345761299133, 0.47637227177619934, -0.7540563941001892, -0.1997619867324829, 0.6802225112915039, -0.2588050365447998, -1.2637003660202026, -0.6458867788314819, -0.14975549280643463, -0.7504497766494751, -0.7618467211723328, -0.5453383326530457, 0.12431801110506058, 0.6758880019187927, -0.2932983636856079, 0.6636562943458557, -0.5365160703659058, 0.03389327600598335, 0.5638983249664307, 0.42763206362724304, 0.8070053458213806, -0.8773496747016907, -0.4591265618801117, 0.15519791841506958, 0.7137373685836792, -0.8182999491691589, 0.4600987434387207, -0.5584755539894104, 0.06969568878412247, 0.658289909362793, -0.23798465728759766, 0.46577978134155273, -0.5001534223556519, -0.3255453109741211, 0.5542043447494507, 0.44524526596069336, -0.14744651317596436, 0.40938296914100647, -0.2965677082538605, 0.6551285982131958, -1.1061729192733765, -0.9281523823738098, 0.7559099197387695, -0.40004801750183105, -0.5961008071899414, 0.4936341345310211, -0.5024829506874084, -0.2529306411743164, -0.9652096033096313, 0.888008713722229, -0.7625203132629395, -0.8841211795806885, 0.9866747856140137, 0.461491197347641, 0.3932034969329834, -0.578802764415741, 0.7743708491325378, -0.5674868226051331, 0.9611156582832336, -0.10000979900360107, 0.45974478125572205, 0.0782298892736435, -0.2172762155532837, 0.8288754224777222, -0.8031584024429321, 0.7479074597358704, -0.8385230302810669, 0.2066148966550827, -0.5093436241149902, 0.6204093098640442, -0.29848742485046387, -0.6663615703582764, -0.5041251182556152, 0.01732851378619671, -0.8140145540237427, -0.06090283393859863, 0.382366806268692, -0.9964127540588379, -0.792515218257904, 0.32893869280815125, 0.4412088096141815, 0.7323598265647888, -0.0003943471238017082, -1.1290925741195679, -0.8504682779312134, 0.6387624144554138, -0.2166277915239334, 0.8569548726081848, -0.6991682052612305, -0.3806443214416504, -0.40440189838409424, 0.333385169506073, -0.6206938028335571, -0.9196416139602661, 0.807904064655304, 0.4804520905017853, -0.06274938583374023, -0.4680776596069336, 0.18215849995613098, 1.0204217433929443, 0.43800610303878784, 0.3159046769142151, -0.2046339064836502, 0.08795316517353058, 0.5857702493667603, -0.338262677192688, 0.7673048973083496, 0.12608309090137482, -0.24992501735687256, -0.9886858463287354, 0.8860240578651428, 0.6028894186019897, -0.4914095103740692, 0.7417178750038147, -0.6890737414360046, -0.8472439050674438, 0.4036233127117157, 0.14522592723369598, -0.3624972105026245, 0.42686164379119873, 0.07495258003473282, -0.09629824757575989, 0.4378531277179718, 0.9812183976173401, -0.5507813692092896, 0.3993902802467346, 0.7761679887771606, 0.45600181818008423, 0.646202027797699, -0.40500208735466003, 0.053527552634477615, -0.4461362361907959, 0.3138430118560791, 0.961035966873169, -0.535088837146759, 0.43863698840141296, 0.9724904894828796, 0.2890317738056183, 0.47393113374710083, -0.7878388166427612, 0.31101667881011963, -0.7032546997070312, -0.28720569610595703, 0.4466482102870941, -0.4999963045120239, 0.906599223613739, -0.6991933584213257, 0.5549807548522949, -0.4260176420211792, 0.7983063459396362, -0.6512068510055542, -0.9005639553070068, 0.2982715964317322, 0.967824399471283, 0.40186822414398193, 0.022076290100812912, 0.9207510948181152, -0.7533696889877319, -0.5319011807441711, -0.5059161186218262, 0.010342193767428398, 0.7331027984619141, 0.04765092581510544, -0.9208471775054932, -0.8363896608352661, 0.8795268535614014, 0.21968644857406616, -0.2767525911331177, -0.7862153053283691, 0.7933436036109924, 0.738700270652771, 0.8859386444091797, -0.26749300956726074, 0.9322937726974487, 0.8872269988059998, -0.18006563186645508, -0.933368444442749, 0.7415775060653687, -0.769804835319519, -0.18597356975078583, -0.6751747131347656, 0.07801114767789841, 0.5720863938331604, -1.0153312683105469, 0.8028449416160583, -0.38418588042259216, -0.3884584307670593, -0.08662629127502441, 0.5661798119544983, 1.0039830207824707, 0.20074589550495148, -0.26295626163482666, 0.22685477137565613, -0.6832869052886963, 0.5938770771026611, -0.9004477262496948, 0.991838276386261, -0.9630197286605835, -0.0003578980395104736, 0.7901588678359985, 0.6863958239555359, 0.7028807997703552, 0.6881541609764099, 0.4645612835884094, 0.12476971745491028, 0.09285673499107361, 0.6119540333747864, 0.638702392578125, 0.35099175572395325, 0.6375864744186401, 0.8716300129890442, -0.9418619871139526, 0.34307318925857544, -0.7393560409545898, 0.5465333461761475, -0.6496329307556152, 1.0170360803604126, 0.04449641704559326, -0.1982765644788742, 0.4559212625026703, 0.812609851360321, 0.8047187924385071, 0.19918328523635864, -0.9429221153259277, -0.3271939754486084, 0.30381855368614197, -0.7412169575691223, 0.49668648838996887, 0.8528462648391724, 0.22086916863918304, -0.5840921998023987, 0.3105705678462982, 0.22957991063594818, 0.6924227476119995, 0.9115027785301208, 0.03621308133006096, 0.9823508262634277, 0.9864040017127991, -0.06039201840758324, 0.7811733484268188, 0.9558867812156677, -0.4488111734390259, -0.990044116973877, 1.0015050172805786, 0.14230398833751678, 0.27669084072113037, -0.5253055691719055, -1.2953588962554932, 0.7820439338684082, -0.009280918166041374, 0.6086400747299194, -0.28096258640289307, 0.2286090850830078, 0.44767558574676514, -0.4823122024536133, -0.9592225551605225, 0.694391667842865, 0.5582178235054016, 0.25414761900901794, -0.18095779418945312, -0.9403578042984009, 0.727078378200531, -0.8305966258049011, -0.05045902729034424, -0.8984783887863159, -0.9203222990036011, -0.1712641716003418, 0.6921944618225098, -0.5098862648010254, 0.44742757081985474, -0.5303372144699097, -0.9820188283920288, -0.4897336959838867, -0.6649458408355713, -0.285579115152359, 0.029611771926283836, 0.4709104299545288, 0.13270333409309387, 0.855753481388092, -0.028223752975463867, 0.417317658662796, -0.7354147434234619, 0.3225235342979431, 0.51896733045578, -0.24807049334049225, 0.8468920588493347, -0.8475897312164307, -0.5764536261558533, 0.794962465763092, -0.19839298725128174, 0.5097203850746155, -0.39308488368988037, 0.11279355734586716, -0.41279762983322144, 0.763736367225647, 0.1105688065290451, 0.7681395411491394, 0.4334329068660736, -0.7415791749954224, 0.6616312265396118, -0.49215567111968994, -0.6286112666130066, -1.1525315046310425, 0.9858930110931396, 0.7349712252616882, -0.030304670333862305, 0.9070535898208618, 0.7128660678863525, 0.2441094070672989, -0.06451690196990967, 0.09005694836378098, -0.29033082723617554, -0.7469391822814941, 0.6266556978225708, -0.021333694458007812, 0.7403917908668518, 0.653836190700531, 0.604101836681366, -0.8922984600067139, 0.41005706787109375, 0.6168426275253296, 0.1153506487607956, -0.7989192605018616, 0.2586374282836914, -0.9570456743240356, 0.07452181726694107, 0.12123050540685654, 0.48257455229759216, -0.3768669366836548, -0.4621344804763794, -0.8031227588653564, 0.18995961546897888, 0.05174902081489563, 0.4186828136444092, 1.0424079895019531, 0.8556874394416809, 0.6293246150016785, -1.3633396625518799, 0.15319357812404633, -0.2937295436859131, -0.375002384185791, 0.3477630615234375, -0.38053619861602783, 0.5541368126869202, 0.7616103887557983, -0.3266424834728241, 0.9387749433517456, -0.921586275100708, -0.7887431383132935, 0.0302878450602293, -0.8618865609169006, -0.42067015171051025, 0.5736372470855713, 0.38776445388793945, -0.648865818977356, -0.3848567008972168, 1.2325539588928223], "output_layer.weight": [[-0.00033964100293815136, 0.19625043869018555, -0.024340158328413963, -0.12202764302492142, 0.41324499249458313, 0.04077516123652458, -0.009208251722157001, 0.03539909049868584, 0.013787664473056793, 0.34183868765830994, 0.43471816182136536, 0.019879529252648354, -0.016763536259531975, -0.08376043289899826, 0.2784373164176941, -0.023080183193087578, 0.0005927770980633795, -0.09198036044836044, -0.015624389052391052, 0.022456364706158638, 0.043262381106615067, -0.02116440236568451, -0.03731875866651535, -0.05487421900033951, -0.01826869510114193, 0.026417117565870285, -0.002572591882199049, 0.015071858651936054, 0.039755262434482574, 0.015965573489665985, 0.02407621033489704, 0.02726379968225956, 0.02106894552707672, -0.05174621194601059, -0.006327237468212843, 0.27701008319854736, 0.023485688492655754, -0.009335626848042011, -0.13265074789524078, -0.0015689413994550705, -0.03513118997216225, -0.020120756700634956, 0.008145389147102833, 0.028670741245150566, -0.03401479125022888, 0.30008503794670105, 0.035143010318279266, 0.1813572496175766, -0.015930598601698875, -0.0037022028118371964, -0.03939373418688774, -0.019205579534173012, -0.022515274584293365, 0.021644650027155876, -0.005125199444591999, 0.020208777859807014, 0.0026672491803765297, -0.009664029814302921, 0.03509592264890671, 0.03118773177266121, -0.11246838420629501, 0.0307143721729517, 0.03681415319442749, -0.08790385723114014, -0.003405129536986351, -0.010677998885512352, 0.03577639162540436, -0.11529625952243805, -0.013485578820109367, -0.024495741352438927, -0.030985265970230103, -0.021135469898581505, -0.02927348203957081, -0.028142092749476433, -0.02611609362065792, 0.019888196140527725, -0.00721639534458518, 0.01165095530450344, -0.00020378967747092247, 0.011335184797644615, -0.022453537210822105, -0.013637724332511425, 0.04337703064084053, -0.03733006864786148, 0.0363018661737442, -0.01843545213341713, -0.03828958049416542, 0.04131196439266205, -0.07135964184999466, 0.03719780221581459, -0.013590625487267971, -0.011168630793690681, 0.01112915389239788, 0.038902416825294495, -0.035745784640312195, 0.005772186443209648, -0.014372711069881916, 0.01543164812028408, -0.02455325238406658, 0.015370968729257584, -0.04097782075405121, 0.011043964885175228, -0.034196626394987106, -0.05692662298679352, -0.03342157602310181, 0.040966253727674484, -0.0015681127551943064, -0.07647467404603958, -0.008088127709925175, -0.09259460121393204, -0.014922793954610825, 0.35646700859069824, 0.009619027376174927, 0.040329549461603165, -0.02387000434100628, 0.040200669318437576, 0.014469508081674576, -0.03784159570932388, -0.014382905326783657, 0.037113748490810394, -0.030450932681560516, -0.021151501685380936, 0.027603166177868843, -0.030946390703320503, 0.03842885419726372, 0.03247398883104324, -0.01869950257241726, -0.010529357008635998, -0.01714414730668068, -0.028145918622612953, 0.020323436707258224, 0.03805624321103096, 0.0017024691915139556, -0.013300243765115738, -0.04246174916625023, 0.03328130021691322, -0.021755365654826164, -0.013204609975218773, -0.012666407972574234, -0.0290930587798357, 0.31784558296203613, -0.03358480706810951, -0.008144551888108253, -0.024234654381871223, 0.03325376659631729, -0.031255077570676804, 0.014097335748374462, 0.0051901014521718025, -0.019525784999132156, 0.032715149223804474, 0.01314117107540369, 0.022447168827056885, -0.0014170665526762605, -0.09538920223712921, -0.023075737059116364, 0.012040983885526657, -0.06250567734241486, 0.002104734303429723, 0.014843635261058807, 0.010761063545942307, 0.035036638379096985, 0.46243757009506226, 0.032421380281448364, 8.29830823931843e-05, -0.040271464735269547, 0.041754938662052155, -0.03744567558169365, -0.0009295306517742574, -0.024137210100889206, -0.026676783338189125, -0.0009942407486960292, 0.03405046835541725, 0.015932893380522728, 0.011407746002078056, -0.053396228700876236, 0.0006991244736127555, -0.042554229497909546, 0.04016794636845589, -0.0063868421129882336, 0.03379461169242859, 0.023219410330057144, -0.054253965616226196, -0.0010029029799625278, 0.008741545490920544, 0.019313978031277657, -0.02938452921807766, -0.04307108372449875, -0.0003850061912089586, -0.020741665735840797, -0.04990728572010994, 0.011342893354594707, -0.040101952850818634, 0.03765313699841499, 0.02748219110071659, -0.0550110898911953, 0.2126699686050415, -0.0373615100979805, -0.04596245288848877, -0.03015829809010029, -0.017313916236162186, -0.03623759746551514, 0.007183879613876343, 0.04216151311993599, -0.012990664690732956, 0.034252822399139404, -0.005802261643111706, 0.026437120512127876, -0.061961930245161057, -0.08090521395206451, 0.02654382959008217, 0.012568742968142033, -0.040774885565042496, 0.010799555107951164, 0.03557587042450905, -0.0071626091375947, -0.0026817317120730877, -0.03453720360994339, 0.00349461124278605, -0.018242238089442253, -0.008890645578503609, 0.032168928533792496, -0.017593178898096085, -0.042001768946647644, 0.027142448350787163, -0.03893560916185379, -0.018069729208946228, -0.024382902309298515, 0.013757511042058468, 0.035639941692352295, 0.6205558180809021, 0.027744079008698463, -0.045938000082969666, -0.022649353370070457, -0.000955756870098412, -0.03665368631482124, -0.03391101956367493, -0.030423831194639206, 0.03000510483980179, 0.39301079511642456, -0.017160046845674515, 0.0382649227976799, 0.006741874385625124, 0.027434665709733963, -0.002078972291201353, -0.04172825068235397, 0.01600077748298645, -0.0019148931605741382, -0.026824360713362694, -0.02623448520898819, 0.016764340922236443, -0.007157210260629654, 0.03907086327672005, -0.003962957300245762, 0.018869370222091675, -0.08968641608953476, 0.01793031580746174, -0.17984998226165771, -0.01770181395113468, 0.004902278538793325, 0.010470133274793625, -0.025651194155216217, 0.009289776906371117, -0.024847449734807014, -0.035473454743623734, -0.016622737050056458, -0.09516958892345428, -0.1250549703836441, 0.01030306238681078, -0.04616860672831535, -0.0005024253623560071, 0.03311162814497948, -0.04783932864665985, -0.039005763828754425, 0.034232646226882935, -0.00937239732593298, -0.011283154599368572, -0.026750417426228523, 0.001974242040887475, 0.005374035332351923, 0.041528306901454926, -0.02312648482620716, 0.010240062139928341, -0.006664178799837828, -0.03182850778102875, 0.01702849753201008, -0.023986151441931725, -0.030622992664575577, -0.006763521581888199, 0.027493495494127274, 0.00916343741118908, -0.0057504503056406975, -0.02532387152314186, -0.039822742342948914, -0.03499913588166237, -0.03275776654481888, -0.034149669110774994, -0.03508685156702995, -0.033567313104867935, -0.045754991471767426, 0.005736467428505421, -0.06837254762649536, -0.017122415825724602, 0.025718748569488525, -0.022355610504746437, -0.012648607604205608, 0.029398664832115173, 0.03666997700929642, -0.08849149197340012, -0.044208746403455734, 0.33182838559150696, -0.011954457499086857, -0.06782549619674683, -0.022122284397482872, -0.017563480883836746, -0.03170190379023552, 0.021090809255838394, -0.040722645819187164, 0.01732361502945423, -0.022914350032806396, 0.006044809706509113, -0.05135881528258324, -0.003422895912081003, -0.017945848405361176, -0.00044591890764422715, 0.029788119718432426, -0.033284205943346024, 0.3963894248008728, 0.03304831311106682, 0.024029163643717766, 0.019551781937479973, -0.02507057785987854, -0.0070413630455732346, 0.003737624268978834, -0.019841622561216354, -0.018226396292448044, -0.015201619826257229, -0.02824562042951584, -0.017457175999879837, 0.012446322478353977, -0.02174818515777588, -0.02330942451953888, -0.028511187061667442, 0.04364670813083649, -0.01021952647715807, -0.021547751501202583, -0.04238654673099518, 0.011007191613316536, -0.018172122538089752, -0.02644241601228714, -0.09831742197275162, -0.021184749901294708, 0.15403804183006287, -0.03114965558052063, -0.01989114284515381, 0.22675709426403046, -0.0921257883310318, -0.03540290519595146, -0.009593022055923939, 0.009611111134290695, -0.022114912047982216, -0.03039778396487236, 0.012682819738984108, -0.059222593903541565, 0.04275381192564964, 0.028840435668826103, -0.04025379195809364, -0.035806842148303986, 0.03107634373009205, -0.042721644043922424, 0.003094731830060482, 0.0025081378407776356, -0.09255189448595047, 0.019078951328992844, 0.017997631803154945, -0.0515173003077507, -0.023653816431760788, -0.029179343953728676, 0.029807651415467262, -0.027155425399541855, 0.03569883480668068, 0.04025646671652794, -0.0429864265024662, 0.013653659261763096, -0.019169075414538383, -0.02976289764046669, -0.006400046404451132, -0.01839589513838291, -0.002979283919557929, 0.01642235741019249, 4.7582347178831697e-05, -0.015169876627624035, -0.017149513587355614, -0.05926411971449852, -0.024936243891716003, -0.022226732224225998, -0.08592662215232849, -0.025708982720971107, 0.007050445768982172, -0.038243792951107025, 0.036061543971300125, -0.0033347245771437883, 0.04273926094174385, 0.3716118037700653, -0.10294420272111893, -0.009906542487442493, -0.08231766521930695, -0.026948530226945877, -0.0065015703439712524, -0.027190620079636574, -0.004915808327496052, 0.0020525988657027483, -0.005691586993634701, -6.127057713456452e-05, 0.00693223811686039, -0.02707432396709919, -0.02964550256729126, 0.003612226340919733, 0.03745969384908676, 0.005762317217886448, 0.0014714326243847609, 0.011391802690923214, -0.036024581640958786, -0.03653106465935707, -0.020523786544799805, -0.08954588323831558, -0.021205265074968338, 0.033995531499385834, -0.016376381739974022, 0.020837096497416496, -0.02678968943655491, -0.0032682844903320074, -0.0474405363202095, -0.034342046827077866, -0.059152405709028244, -0.016814032569527626, -0.0016269262414425611, -0.007215882185846567, -0.0363331101834774, -0.08902265131473541, -0.03366049379110336, 0.372633695602417, -0.024209817871451378, -0.017039841040968895, -0.10678471624851227, 0.018709512427449226, -0.01589597575366497, -0.037629384547472, -0.016303975135087967, -0.003348628059029579, -0.00598554965108633, -0.043011050671339035, -0.06003861129283905, -0.006543663330376148, 0.040216006338596344, -0.02761516161262989, -0.01833196170628071, 0.04189840331673622, 0.6182547211647034, -0.09316543489694595, 0.007120258640497923, 0.033916279673576355, -0.05924573540687561, -0.025940503925085068, -0.03356119245290756, 0.022603826597332954, -0.03299029543995857, 0.034902799874544144, 0.04129386320710182, -0.027456704527139664, 0.017839064821600914, -0.08268678188323975, -0.027146650478243828, -0.060258883982896805, 0.0066930619068443775, -0.031536344438791275, -0.11149958521127701, 0.044263508170843124, 0.0540737546980381, -0.008575517684221268, 0.03596598654985428, -0.037589408457279205, 0.02297700010240078, -0.03098411113023758, 0.012515390291810036, 0.03873342275619507, -0.005828986410051584, -0.013790309429168701, 0.02509763464331627, 0.0007883203797973692, 0.37399527430534363, -0.009446310810744762, -0.014731957577168941, 0.5461421608924866, 0.013090385124087334, -0.030475527048110962, -0.03535769507288933, 0.026076816022396088, 0.00212836847640574, -0.013011367991566658, 0.031972818076610565, 0.006241475231945515, -0.07923673093318939, 0.026225369423627853, 0.025016367435455322, 0.026758654043078423, 0.03159264102578163, -0.0020447017159312963, -0.016034185886383057, -0.1033577024936676, 0.010602397844195366, 0.0307249054312706, 0.2911533713340759]], "output_layer.bias": [0.005723192822188139]}